{
  "biases": [
    [
      0.3054020388593364,
      -0.17495250813622878
    ],
    [
      0.28841033763851526,
      -0.1987975753881208,
      0.259224154136735,
      0.2134523658968996
    ],
    [
      -0.19373088041565711,
      0.2682539616207423,
      -0.02645659858709498,
      -0.14345885839746608,
      -0.0228456489749001,
      -0.08545409683050897,
      0.09602451145661128,
      0.3279533804097828
    ],
    [
      0.2672289489954253,
      -0.028080387110202776,
      0.2890416285898835,
      0.052080900279460385,
      -0.04793315695780642,
      -0.21790653116505587,
      -0.260009928646143,
      -0.1473957707867765,
      0.2811634113130201,
      0.168919293632586,
      0.10465795982750598,
      -0.19144993190182863,
      0.132587271202474,
      0.33355575950671085
    ]
  ],
  "hiddenLayerSizes": [
    2,
    4,
    8
  ],
  "weights": [
    [
      [
        0.10698511530048754,
        -0.3057176038747774,
        -0.09083442686920296,
        -0.1444152314338326,
        -0.21098537314084817,
        0.10655697636754624,
        0.2724561754665878,
        -0.2281929698202506,
        -0.1450290463767607,
        0.2761846460276354,
        0.23994729373232354,
        -0.15568860754083674,
        0.07482839437367722,
        -0.16899058541363518,
        0.18841125369515138,
        -0.3310054663767068,
        0.19693110934958963,
        0.20538238240252032,
        -0.09850292773755048,
        -0.05063183278055766,
        0.007026182391204949,
        -0.17806224533828172,
        -0.19948586928239742,
        0.13244495752283914,
        -0.06729749048788092,
        -0.14760944212088842,
        0.1258090192667029,
        -0.042849117736451114,
        -0.27164358195990407,
        -0.12624456693702962,
        -0.23921061255359694,
        0.15869923182357953,
        -0.12748019981920913,
        -0.09022561116330363,
        0.10134661330990918,
        -0.09628390027158806,
        0.02902675013347278
      ],
      [
        -0.3305343345237405,
        0.012421036689059362,
        -0.2641929762274801,
        0.175604405153371,
        0.0704003753512451,
        0.24053655368052557,
        -0.2856057321009992,
        0.29030039924416345,
        0.3028402900739368,
        -0.019771609971852122,
        0.22965015052694898,
        -0.3141066859359074,
        0.21941753229250055,
        -0.04852313682591525,
        0.3190979690430244,
        -0.32045472316527324,
        0.202825578382185,
        0.05807391301788184,
        0.24069971620370462,
        -0.3127483568088602,
        0.01074135745358945,
        0.09116974341689199,
        0.00926209102839115,
        -0.17458838305275592,
        -0.2640562764827138,
        0.1956869644496631,
        0.23116185604972667,
        -0.0370959509449767,
        -0.1443375484634254,
        -0.08201572960689435,
        0.29408347936994356,
        -0.0034854592480521585,
        -0.25389467008271516,
        0.17870358606484787,
        -0.04670520671562434,
        -0.18541622516484887,
        -0.15058727991326173
      ]
    ],
    [
      [
        0.10747013579316372,
        0.2562286330941406
      ],
      [
        -0.022535493444668042,
        0.22700580311423907
      ],
      [
        0.18745250300030286,
        0.25841624005618363
      ],
      [
        -0.34034909304294986,
        0.29361778064588656
      ]
    ],
    [
      [
        -0.07491891294958719,
        -0.1893225280342639,
        -0.09518764920141096,
        -0.28650098021445713
      ],
      [
        -0.16385965822087792,
        0.0676459028828354,
        0.07324101442652309,
        0.15173700778183935
      ],
      [
        0.2878664639226927,
        0.2418009141382948,
        -0.016398601284181913,
        0.11929453602142581
      ],
      [
        -0.32503676755877287,
        0.21052796616691055,
        0.056024748646045286,
        0.2479470442798723
      ],
      [
        -0.199794159722709,
        -0.33181548309443953,
        0.02812712547140389,
        -0.1345010081321602
      ],
      [
        -0.27231052330267047,
        0.13531043224568967,
        -0.19892401141510285,
        0.1482068689563646
      ],
      [
        -0.20639898620794878,
        0.2178158357915329,
        0.22511482327775173,
        -0.10182561471235294
      ],
      [
        0.14205644591178646,
        -0.3106883722529655,
        -0.20235268184338698,
        -0.22195961875728237
      ]
    ],
    [
      [
        0.03086019715877053,
        -0.14077884831984822,
        -0.1694751534009464,
        0.3416488576536045,
        -0.32883474013665676,
        0.21322935462531195,
        -0.027744834396914497,
        -0.302463803160362
      ],
      [
        0.015111287167412946,
        0.027040285511136075,
        0.3229281043709948,
        -0.005295422596451049,
        0.051999489995015524,
        -0.24157958932540102,
        0.2727684488243827,
        -0.26775309841409134
      ],
      [
        0.3088480303562679,
        0.009982638671292288,
        0.2476816636120624,
        -0.3312815855529099,
        -0.12971799397374484,
        0.21533599540954879,
        -0.2721247824877443,
        0.31417459690847055
      ],
      [
        -0.05482497129262004,
        -0.06364450327249632,
        -0.07066308728378112,
        -0.20175684094993215,
        -0.26397864589699194,
        -0.09594273887477109,
        -0.02832740612186857,
        0.11560095069869969
      ],
      [
        0.10453163059815418,
        0.24853285949183596,
        -0.17760417393140587,
        0.32328155545026255,
        0.16797427996195685,
        -0.015735044378765994,
        0.29159337637222255,
        -0.18295983608313907
      ],
      [
        -0.09136922400109121,
        -0.3184419223416964,
        0.027750397449425646,
        0.2286725793801057,
        0.026661578526742447,
        -0.05221626532504603,
        -0.24055752765850885,
        -0.14555987391635367
      ],
      [
        -0.02444502262820475,
        0.32619641712337993,
        0.27222272750628845,
        -0.1491165941598643,
        0.252269925235904,
        0.05998682756560375,
        0.24456277951336186,
        0.005101907293193375
      ],
      [
        0.13780507940739595,
        0.09268491587617395,
        -0.09692715800396537,
        0.05613773795087529,
        -0.31084328930612176,
        0.029028395301714582,
        -0.3399957191366073,
        -0.12088251524717888
      ],
      [
        0.0686249189286422,
        0.33207931518615935,
        0.05755501569699972,
        -0.011959750379945955,
        -0.32437628821774106,
        0.33964158110464543,
        0.012567797686401705,
        -0.026814414425352373
      ],
      [
        0.15752144294315712,
        0.2108056523467992,
        -0.22300403411037673,
        0.10538844527563268,
        0.24826420674436916,
        0.023897457873068406,
        0.22570478022142676,
        0.1415084102837043
      ],
      [
        -0.3214989266066246,
        -0.29524775754876376,
        0.03207642014660439,
        -0.32189053054351413,
        -0.20266793146990197,
        -0.302368117980771,
        0.2382290712465696,
        -0.25941442032952544
      ],
      [
        0.21208702196320522,
        0.08107568224708372,
        0.05686724716187913,
        -0.09059657629523865,
        -0.14394815654203916,
        0.2211274238563627,
        0.14042699031974654,
        -0.23033263318871944
      ],
      [
        0.2790116550000576,
        0.04322947980350439,
        0.20627153350430266,
        0.16180734158820625,
        0.020216859003784504,
        0.3259249365771378,
        -0.24604442420478445,
        0.2878429719382463
      ],
      [
        -0.1247637742695471,
        -0.0638816074229156,
        -0.1205082694377185,
        0.051966791372182686,
        -0.09324890648264286,
        -0.3153882941365254,
        0.06012457948501676,
        0.3253508868668696
      ]
    ]
  ]
}