{
  "biases": [
    [
      0.3054020388593364,
      -0.17495250813622878,
      0.10698511530048754,
      -0.3057176038747774,
      -0.09083442686920296,
      -0.1444152314338326,
      -0.21098537314084817,
      0.10655697636754624,
      0.2724561754665878,
      -0.2281929698202506,
      -0.1450290463767607,
      0.2761846460276354,
      0.23994729373232354,
      -0.15568860754083674,
      0.07482839437367722,
      -0.16899058541363518,
      0.18841125369515138,
      -0.3310054663767068,
      0.19693110934958963,
      0.20538238240252032,
      -0.09850292773755048,
      -0.05063183278055766,
      0.007026182391204949,
      -0.17806224533828172,
      -0.19948586928239742,
      0.13244495752283914,
      -0.06729749048788092,
      -0.14760944212088842,
      0.1258090192667029,
      -0.042849117736451114,
      -0.27164358195990407,
      -0.12624456693702962
    ],
    [
      -0.19731561865675298,
      -0.08864389980176962,
      0.1967156284646499,
      -0.1945580925782648,
      0.33940462955729295,
      0.32657554937139094,
      -0.28485667533743686,
      0.3186260742792482,
      -0.08801576536152739,
      0.017595361715536273,
      0.05707760003268919,
      -0.31334678897930274,
      -0.16815589544755868,
      -0.10549158687172802,
      -0.19831489925677612,
      -0.28019997676083813,
      0.2797181590983799,
      -0.12242143447506873,
      -0.316439036123148,
      0.2276222559901399,
      0.022689723023994024,
      -0.10543293075080884,
      -0.2690898191094903,
      0.13336336373961738,
      0.24834970525979733,
      -0.16168530219323468,
      -0.28632729776311994,
      -0.048511202588341684,
      0.32092772679266385,
      0.028752029596782025,
      0.0491781900599394,
      -0.07106050579482143
    ],
    [
      0.22344232063729103,
      0.14530815848553114,
      -0.21439622939915062,
      0.12262078067025783,
      -0.10550637570892496,
      0.2040760741322401,
      0.24061610683498386,
      0.04434974697899763,
      0.18689450273021097,
      0.17639089718318307,
      0.24115446794612888,
      -0.15093226435145052,
      -0.24685459882935526,
      0.022468126746412687
    ]
  ],
  "hiddenLayerSizes": [
    32,
    32
  ],
  "weights": [
    [
      [
        -0.23921061255359694,
        0.15869923182357953,
        -0.12748019981920913,
        -0.09022561116330363,
        0.10134661330990918,
        -0.09628390027158806,
        0.02902675013347278,
        -0.3305343345237405,
        0.012421036689059362,
        -0.2641929762274801,
        0.175604405153371,
        0.0704003753512451,
        0.24053655368052557,
        -0.2856057321009992,
        0.29030039924416345,
        0.3028402900739368,
        -0.019771609971852122,
        0.22965015052694898,
        -0.3141066859359074,
        0.21941753229250055,
        -0.04852313682591525,
        0.3190979690430244,
        -0.32045472316527324,
        0.202825578382185,
        0.05807391301788184,
        0.24069971620370462,
        -0.3127483568088602,
        0.01074135745358945,
        0.09116974341689199,
        0.00926209102839115,
        -0.17458838305275592,
        -0.2640562764827138,
        0.1956869644496631,
        0.23116185604972667,
        -0.0370959509449767,
        -0.1443375484634254,
        -0.08201572960689435
      ],
      [
        0.29408347936994356,
        -0.0034854592480521585,
        -0.25389467008271516,
        0.17870358606484787,
        -0.04670520671562434,
        -0.18541622516484887,
        -0.15058727991326173,
        0.28841033763851526,
        -0.1987975753881208,
        0.259224154136735,
        0.2134523658968996,
        0.10747013579316372,
        0.2562286330941406,
        -0.022535493444668042,
        0.22700580311423907,
        0.18745250300030286,
        0.25841624005618363,
        -0.34034909304294986,
        0.29361778064588656,
        -0.19373088041565711,
        0.2682539616207423,
        -0.02645659858709498,
        -0.14345885839746608,
        -0.0228456489749001,
        -0.08545409683050897,
        0.09602451145661128,
        0.3279533804097828,
        -0.07491891294958719,
        -0.1893225280342639,
        -0.09518764920141096,
        -0.28650098021445713,
        -0.16385965822087792,
        0.0676459028828354,
        0.07324101442652309,
        0.15173700778183935,
        0.2878664639226927,
        0.2418009141382948
      ],
      [
        -0.016398601284181913,
        0.11929453602142581,
        -0.32503676755877287,
        0.21052796616691055,
        0.056024748646045286,
        0.2479470442798723,
        -0.199794159722709,
        -0.33181548309443953,
        0.02812712547140389,
        -0.1345010081321602,
        -0.27231052330267047,
        0.13531043224568967,
        -0.19892401141510285,
        0.1482068689563646,
        -0.20639898620794878,
        0.2178158357915329,
        0.22511482327775173,
        -0.10182561471235294,
        0.14205644591178646,
        -0.3106883722529655,
        -0.20235268184338698,
        -0.22195961875728237,
        0.2672289489954253,
        -0.028080387110202776,
        0.2890416285898835,
        0.052080900279460385,
        -0.04793315695780642,
        -0.21790653116505587,
        -0.260009928646143,
        -0.1473957707867765,
        0.2811634113130201,
        0.168919293632586,
        0.10465795982750598,
        -0.19144993190182863,
        0.132587271202474,
        0.33355575950671085,
        0.03086019715877053
      ],
      [
        -0.14077884831984822,
        -0.1694751534009464,
        0.3416488576536045,
        -0.32883474013665676,
        0.21322935462531195,
        -0.027744834396914497,
        -0.302463803160362,
        0.015111287167412946,
        0.027040285511136075,
        0.3229281043709948,
        -0.005295422596451049,
        0.051999489995015524,
        -0.24157958932540102,
        0.2727684488243827,
        -0.26775309841409134,
        0.3088480303562679,
        0.009982638671292288,
        0.2476816636120624,
        -0.3312815855529099,
        -0.12971799397374484,
        0.21533599540954879,
        -0.2721247824877443,
        0.31417459690847055,
        -0.05482497129262004,
        -0.06364450327249632,
        -0.07066308728378112,
        -0.20175684094993215,
        -0.26397864589699194,
        -0.09594273887477109,
        -0.02832740612186857,
        0.11560095069869969,
        0.10453163059815418,
        0.24853285949183596,
        -0.17760417393140587,
        0.32328155545026255,
        0.16797427996195685,
        -0.015735044378765994
      ],
      [
        0.29159337637222255,
        -0.18295983608313907,
        -0.09136922400109121,
        -0.3184419223416964,
        0.027750397449425646,
        0.2286725793801057,
        0.026661578526742447,
        -0.05221626532504603,
        -0.24055752765850885,
        -0.14555987391635367,
        -0.02444502262820475,
        0.32619641712337993,
        0.27222272750628845,
        -0.1491165941598643,
        0.252269925235904,
        0.05998682756560375,
        0.24456277951336186,
        0.005101907293193375,
        0.13780507940739595,
        0.09268491587617395,
        -0.09692715800396537,
        0.05613773795087529,
        -0.31084328930612176,
        0.029028395301714582,
        -0.3399957191366073,
        -0.12088251524717888,
        0.0686249189286422,
        0.33207931518615935,
        0.05755501569699972,
        -0.011959750379945955,
        -0.32437628821774106,
        0.33964158110464543,
        0.012567797686401705,
        -0.026814414425352373,
        0.15752144294315712,
        0.2108056523467992,
        -0.22300403411037673
      ],
      [
        0.10538844527563268,
        0.24826420674436916,
        0.023897457873068406,
        0.22570478022142676,
        0.1415084102837043,
        -0.3214989266066246,
        -0.29524775754876376,
        0.03207642014660439,
        -0.32189053054351413,
        -0.20266793146990197,
        -0.302368117980771,
        0.2382290712465696,
        -0.25941442032952544,
        0.21208702196320522,
        0.08107568224708372,
        0.05686724716187913,
        -0.09059657629523865,
        -0.14394815654203916,
        0.2211274238563627,
        0.14042699031974654,
        -0.23033263318871944,
        0.2790116550000576,
        0.04322947980350439,
        0.20627153350430266,
        0.16180734158820625,
        0.020216859003784504,
        0.3259249365771378,
        -0.24604442420478445,
        0.2878429719382463,
        -0.1247637742695471,
        -0.0638816074229156,
        -0.1205082694377185,
        0.051966791372182686,
        -0.09324890648264286,
        -0.3153882941365254,
        0.06012457948501676,
        0.3253508868668696
      ],
      [
        0.1385376885531806,
        0.3265891245297146,
        0.3342198378146652,
        -0.31655884397181555,
        -0.024671272204740802,
        -0.22110813371412325,
        0.16799340521973977,
        0.2911762744171274,
        0.19808100563504877,
        0.23689323561318715,
        -0.23368314917819322,
        0.2691264250608873,
        0.12002908181912197,
        -0.3408125993397506,
        -0.02419955994239681,
        0.2719546387159207,
        -0.2292722641051687,
        0.1172274887598801,
        0.09077338104628918,
        0.12673184090594453,
        -0.09429796969453091,
        -0.001702223675600134,
        -0.1524871296055597,
        -0.21212780477999063,
        0.0655200897850527,
        -0.19390059714809987,
        0.2503206355842618,
        0.18584877193955035,
        -0.07871022466801136,
        -0.2547496557454436,
        0.2928198109825632,
        0.20991646079021414,
        0.33151313677841493,
        -0.16553365177799872,
        -0.03730059152335652,
        -0.2554681650745449,
        0.07683528947496415
      ],
      [
        0.07969263893845174,
        -0.3141192064157968,
        -0.16493477072402923,
        0.0212831777675615,
        -0.06383612896614121,
        -0.10528870951412986,
        0.2727922733163571,
        0.07468152941549538,
        -0.23556144791812542,
        0.175043806670458,
        -0.2104296357112759,
        -0.13450248080303612,
        0.3350888975845872,
        0.2976045047340748,
        0.3013486573891155,
        -0.03235168902705038,
        -0.22924348742825573,
        -0.1973117853302279,
        0.05080188793583701,
        0.21260164386373542,
        0.081910362816558,
        -0.14663672174110226,
        0.11147398847878309,
        0.09012625051153617,
        0.19006104040924315,
        -0.16917894342603476,
        -0.006447028975491764,
        -0.34082925251598534,
        0.27910073415595177,
        0.011155728870071713,
        0.041376643187642004,
        -0.18539893682051567,
        0.001223239035096968,
        0.34180402086238243,
        0.017084510794123153,
        0.13633287841974545,
        0.2122706318484559
      ],
      [
        0.03375952778741359,
        -0.2526170393214594,
        -0.03223105930768749,
        0.29596226316769464,
        -0.26729023693878123,
        0.08254459577042056,
        0.03834288073813319,
        0.2602528727992994,
        -0.011263015715894498,
        0.0921133918920945,
        -0.3106756876027576,
        -0.15654972471944836,
        0.25348231748689004,
        0.2579465474799289,
        0.1674655541528262,
        -0.31849183045336,
        0.18170102981182396,
        -0.18227283987171272,
        -0.24563308059183697,
        0.0836580676948272,
        0.3399710995676872,
        0.04424427350988647,
        0.2677473931821636,
        0.002293714247992684,
        -0.2497539876752437,
        0.04267517198189935,
        -0.1683289762400524,
        0.2625678290173577,
        0.00828480324275277,
        -0.08059536336590062,
        -0.05637478868549689,
        -0.27375513249243155,
        0.2826233287324869,
        0.1832554435350074,
        -0.18879337496457743,
        -0.013435136294278005,
        0.17031654389584977
      ],
      [
        0.30124674450046746,
        -0.0680959142850664,
        -0.08632759918958116,
        -0.30267042175594394,
        0.05875442472552145,
        0.17094631063426785,
        -0.13467376603845788,
        -0.0821439988770098,
        -0.16819348639512435,
        -0.12244415779512702,
        0.12658036354500796,
        0.1280050265656008,
        0.004463297685542766,
        -0.3376266045379267,
        -0.19682797583394093,
        -0.23839706955125428,
        0.0029147601237340393,
        -0.19921527537346181,
        -0.13055615459721576,
        0.13783785208946814,
        0.08395033858799783,
        0.3005341418502154,
        -0.32344549232788194,
        -0.14206630795387182,
        0.34170298115284375,
        -0.1422413208585905,
        -0.18437207670137706,
        0.016720533739506938,
        0.07038768927463807,
        -0.13963357145366861,
        0.0013104408874167195,
        0.07842521819861004,
        -0.017718426042737767,
        -0.16284004416084427,
        -0.008254766080393883,
        0.30005253923944125,
        0.18776291618778634
      ],
      [
        -0.21385879234911884,
        0.18566124266044998,
        -0.18470051688579983,
        -0.05249410852569947,
        -0.07274719063352147,
        -0.3308926663703714,
        -0.13955809166327163,
        -0.08634486847331319,
        -0.31339988611638114,
        -0.0374290233580985,
        -0.21300609301685153,
        -0.3171516813676574,
        0.165370043935484,
        -0.13750678899963337,
        -0.22434607581934973,
        -0.22791186896695542,
        0.046367538318971224,
        -0.21527061251228274,
        0.20278342367455587,
        0.1427770982068532,
        -0.18685586672670396,
        -0.3028035287214102,
        0.04766478632376042,
        -0.29059726121170093,
        0.26134309707781217,
        -0.17595961255585726,
        -0.15312905069584998,
        0.23026425246154597,
        0.14064513946860419,
        -0.18188078584277723,
        -0.060047374787400076,
        0.3255915303639227,
        0.26647714202688283,
        0.17340093570444343,
        -0.33157524110867204,
        0.17113137696331465,
        -0.12591514745640406
      ],
      [
        -0.08832511715543812,
        0.18509970028256545,
        0.22527196745970618,
        0.1635318604593186,
        0.11662743496601141,
        0.19766737711665444,
        0.15439546425034362,
        -0.05135763420469508,
        0.11570102469060428,
        -0.13275056580272626,
        0.3156927996383682,
        0.15398699085362993,
        0.30590615541623417,
        -0.1396642845244376,
        0.09178465560027732,
        0.1577511190644812,
        -0.06218620213953546,
        0.15069054063034382,
        0.13040875756135023,
        0.2184521303689368,
        -0.08885147915878844,
        -0.1115905295560572,
        0.3416534167281428,
        -0.3227444797417545,
        -0.13292400948675648,
        -0.04133759105506846,
        0.2603252580763145,
        0.192300772781889,
        -0.08295669625496616,
        0.15487247971823775,
        0.08463724609237361,
        -0.05194018207288792,
        0.05469100903624419,
        -0.1594661904143993,
        -0.17153966147700872,
        -0.15826321084401856,
        -0.024209909712317734
      ],
      [
        -0.1848141134352349,
        0.03280984778078061,
        -0.07569396541299339,
        0.09397557611278562,
        -0.07696308786994466,
        -0.3141978659925281,
        0.18760919200944298,
        0.21625735753192316,
        -0.20550302858148103,
        -0.09415667680295264,
        0.12362397857804158,
        -0.19520562586687662,
        0.14338352529779147,
        0.08289911950788259,
        0.2914602786564153,
        -0.15380376058305584,
        -0.21538489517628878,
        0.31989750016980895,
        -0.2001940807686555,
        0.32675221232609225,
        0.09149649889055417,
        -0.23205340666674187,
        0.07799041648887811,
        0.041364007496823285,
        0.11435349200486328,
        0.03875779982361871,
        0.3399993298448131,
        0.32060593533853904,
        -0.15874037582190742,
        0.26905051210975844,
        -0.09334592324417576,
        0.1488013534132448,
        -0.07250889060476085,
        0.30725823041465566,
        0.309892661885578,
        -0.2226424611226318,
        -0.32758739059178843
      ],
      [
        -0.16235932619589036,
        0.2884774808153761,
        -0.2856858404080669,
        0.33728062156245603,
        -0.03207733563136228,
        0.03540514722219035,
        -0.2906768550674853,
        0.2584259280933416,
        -0.06857724260907089,
        -0.33931955496081195,
        0.2844974216182184,
        -0.06713598867460657,
        0.08085769382570224,
        -0.1181829764978726,
        -0.303098478334907,
        -0.14368786924851165,
        -0.3333245466627477,
        -0.24787924790760626,
        0.29791433884785085,
        -0.20743370188686117,
        0.1989475674564099,
        0.1848079064807286,
        0.290023598413701,
        -0.13031310645642863,
        -0.033638824016353874,
        0.21488700761476281,
        0.23551597749424275,
        0.1287136215193047,
        -0.0368039732643774,
        -0.2585803969141157,
        -0.005073606227483263,
        -0.117982075817857,
        0.006632455380091551,
        0.010953342308596847,
        0.23810205864980832,
        -0.08694294907664313,
        0.27562428202533523
      ],
      [
        -0.17525579167504268,
        -0.2695271023637172,
        -0.19305699672169147,
        -0.3344387172867536,
        0.1260092728726625,
        0.04531960726514217,
        -0.20013107756113485,
        -0.030428248994759766,
        -0.24487229951506775,
        0.21447675357918022,
        0.12912008794348373,
        0.23927382928720847,
        0.23713347804905288,
        -0.05827635890106586,
        0.2830868852465616,
        0.320980054716369,
        0.30843886538387905,
        -0.005173174332880337,
        -0.2505367505004211,
        -0.3030844425870859,
        -0.011760075330852826,
        -0.03156525218915485,
        0.25393980737984206,
        -0.006692313853546239,
        0.2195317121997133,
        -0.3306565358204648,
        0.17684868118257419,
        0.04075324271765579,
        -0.1791327303962629,
        -0.06957500938253314,
        0.20267974082023982,
        0.1689001861266966,
        0.13440695479092918,
        0.013319925784168019,
        0.05494026602853164,
        -0.3007661486678942,
        -0.25977634231012736
      ],
      [
        0.18226582845413847,
        -0.09539665501910866,
        0.15093560133130202,
        -0.1097346669453752,
        0.07036369807415616,
        0.05453884349418886,
        0.2856893225975469,
        0.13130720964697307,
        -0.08152482060065791,
        0.26445424453676075,
        -0.04852967291426047,
        0.14483718701486786,
        -0.13039931422405235,
        -0.0003526662750541476,
        0.20932069243447976,
        0.1685023079844417,
        0.15964193101661023,
        0.23508344517920093,
        -0.3330772460433871,
        0.05727012824370448,
        0.0007477493124519174,
        -0.2576968056219472,
        -0.24727507070042465,
        0.12939295830233477,
        -0.05851294418694292,
        0.04203221413173669,
        -0.3005002259389758,
        0.021506353562457503,
        0.09692455933439642,
        -0.2036876299885929,
        -0.30632518684995447,
        -0.2490853641290951,
        0.3373113834255042,
        0.2709666304390082,
        0.07180232365634664,
        0.21825085838126906,
        0.11316147659229725
      ],
      [
        0.014285418156303575,
        0.2901742919593637,
        -0.09493961590059807,
        0.07616526630741477,
        -0.13106117404821765,
        -0.32768618465106003,
        0.08433956158083539,
        0.08713651231712333,
        0.20168699531542528,
        -0.12767133204041167,
        -0.3073511688708987,
        0.28001281458714317,
        0.2867129162542886,
        0.2416701322209634,
        -0.16799499272157986,
        0.035690643446354364,
        -0.27062553765101927,
        -0.08715345129013535,
        0.31152598384723545,
        -0.0707042463408406,
        0.11203950397497181,
        0.2898799215414806,
        -0.15573065063384717,
        0.2329740491789501,
        0.20538455760254554,
        -0.03938773856604594,
        -0.26813349724822977,
        0.24590711942761662,
        -0.13943653764992248,
        -0.2910938405921086,
        -0.03724212008734684,
        0.12401028493970373,
        -0.2439031743552845,
        0.16672833643857848,
        -0.039629299404519314,
        -0.09098616526071757,
        0.33864964700016015
      ],
      [
        -0.11952386083412739,
        0.20153138925001107,
        0.25882976244430905,
        -0.2866695307826901,
        0.04696934721566437,
        -0.2618681235567902,
        0.2945333422482412,
        -0.3324246383692098,
        0.2468340054308718,
        0.06122246775956619,
        -0.3101502499961989,
        -0.12009008031568497,
        -0.08004058199055314,
        -0.29957180256065674,
        0.047122648329004535,
        0.13674755174537584,
        0.15481119415116573,
        0.036608391676603125,
        -0.2370407748536913,
        -0.03460070280097799,
        0.018022853456897192,
        0.1060650218984428,
        0.31800762180715175,
        0.10677057153879832,
        -0.2967791091651343,
        0.23929785481425986,
        -0.07015699055636998,
        -0.22427532619051038,
        0.09611560102099986,
        0.34209110443230123,
        -0.10917712896574361,
        -0.29985154274111675,
        0.2054315009166237,
        0.09339770856772212,
        -0.037589576857343376,
        0.3084476031843498,
        -0.32178898254835225
      ],
      [
        -0.09105894932414932,
        -0.10449972218210554,
        0.08158346089865143,
        0.28589263104577894,
        0.21522046258631106,
        -0.2772709437660007,
        -0.02820614359202339,
        0.18776214629620674,
        -0.3039066201355521,
        -0.24037968647901276,
        -0.10195033169773879,
        0.08466294360286869,
        -0.020128785539863636,
        -0.18104585381872904,
        -0.1895213733021611,
        -0.17429607128663419,
        0.0015693331961142976,
        0.18149226318556338,
        -0.01584176915209573,
        -0.08930504452231802,
        0.059345338245198276,
        0.09184537635761364,
        0.1268827118811824,
        0.23837372995369527,
        -0.1618053787788097,
        0.2246736378359772,
        0.0982194173769062,
        0.0044088743454772095,
        -0.10300564572837581,
        0.2943493031415502,
        -0.1873675366330203,
        0.03280819362307791,
        -0.3144140274360204,
        0.017511405995705498,
        -0.056542681126736216,
        0.02905395888557355,
        -0.22330337231415726
      ],
      [
        0.2874816395386885,
        0.1819927736880585,
        -0.09529313275020257,
        -0.03059101192924274,
        -0.19862955446093514,
        0.04213394286499561,
        0.23785972135711247,
        0.2802386455906148,
        -0.11377394104488556,
        -0.11938686761618744,
        0.28818893969812437,
        -0.019992423093819656,
        0.3173212306434731,
        -0.033651320490624526,
        0.18904325400855332,
        0.23502816974595014,
        0.09782805147107787,
        0.09262726348137246,
        -0.06280065772158366,
        0.2420286589178015,
        -0.18313281267248924,
        0.2567907246565789,
        0.15260542887094963,
        0.275880778993201,
        0.10355491266401873,
        0.14249612182168997,
        -0.14761415499221076,
        0.18431670046749932,
        0.2212315571957803,
        -0.07855968871212948,
        -0.24953403510503852,
        -0.013117031443916405,
        -0.29550958744161077,
        0.3384677970582001,
        0.3047756752018271,
        0.32627975902782463,
        0.14886280428615156
      ],
      [
        0.012541434120276196,
        -0.28346864957277446,
        0.31811046683614,
        -0.07366092772398575,
        -0.22414807589641078,
        -0.07972185143388166,
        -0.16988939705003034,
        0.22132384091897345,
        -0.07859486617307321,
        -0.31097443029162436,
        0.21279391962147404,
        -0.21070868233084558,
        -0.24235807595738695,
        0.18338405965518617,
        0.16490279971036131,
        0.23707368690258096,
        -0.12564850620618825,
        -0.0970857727236529,
        -0.007522087688040968,
        -0.27984162561340176,
        0.28099289459763815,
        -0.057909663664933664,
        0.22220366235090078,
        -0.23687991233430308,
        -0.20405962258315297,
        0.25141615898220643,
        0.06405694066406448,
        -0.18895741927660184,
        -0.10921790220975358,
        -0.2344151142976253,
        0.06965945118787376,
        0.3396807018907733,
        -0.03998092414397347,
        0.2733685478055525,
        -0.05136468695243385,
        -0.2551164218082545,
        0.0031641660795585502
      ],
      [
        -0.0981592254775327,
        0.33838674157037846,
        0.21788845876317314,
        -0.2283637080379538,
        -0.14565862983707076,
        -0.04772182836323574,
        0.1419717890679017,
        0.3259638136775885,
        -0.09936119375058036,
        0.0032768661997192305,
        -0.31947603029001914,
        -0.1317095260605617,
        -0.2724186764185037,
        0.1434327640871168,
        -0.055262655500401714,
        0.1788585131969332,
        -0.28778996026234,
        0.03245591087133248,
        0.008716882809071513,
        -0.15616915273617116,
        -0.17863283388274173,
        0.017321163741494172,
        0.13020129091655436,
        0.23558339332068384,
        0.2694493267585995,
        0.2799028815914551,
        0.1323653790106048,
        0.025306391054426447,
        0.15217673692474926,
        0.059058566678434954,
        0.022308942260740372,
        0.2472274196568987,
        -0.051487736757442615,
        0.26104015155429455,
        -0.21433025529612398,
        0.08109928490714335,
        0.18995429209488196
      ],
      [
        -0.3064600043350595,
        0.08280607541899826,
        0.17414797605275917,
        -0.145931630098659,
        0.023681009009775877,
        -0.08217998431602969,
        -0.12472920772930443,
        -0.26508120373432487,
        -0.23797859158123663,
        -0.329098484931807,
        -0.277710453128667,
        0.3046885298309065,
        -0.273157272519402,
        0.1433454074599071,
        0.16461954503599047,
        -0.29985613675094575,
        0.13452755557599894,
        -0.11851199941572771,
        0.09680202438735824,
        -0.3131295989955696,
        -0.278415981401594,
        -0.04369655541830486,
        -0.13334571646854823,
        0.11953807988679171,
        -0.15463360758609107,
        0.2541512081216924,
        -0.2042700594481828,
        -0.22332075474094987,
        0.2115052633797468,
        -0.19869442224297287,
        0.08859939944751316,
        -0.3371859892109855,
        0.12714741300151067,
        -0.19495366099502404,
        -0.21551758006662125,
        -0.008997605031460354,
        0.09401987590899286
      ],
      [
        0.3199029989817927,
        0.07235642131808412,
        -0.23544486636822826,
        -0.15140365280205798,
        -0.07117018113829837,
        -0.06022383901107098,
        0.06059931562841342,
        -0.2180776723103804,
        -0.29926272343154947,
        0.20423067393070066,
        0.25948259693240544,
        0.24926584216336561,
        -0.16204690342710515,
        0.20069048180277,
        -0.2518764626537501,
        0.026869760612797777,
        -0.0660616520313772,
        0.25422766586840323,
        0.23321917400436148,
        -0.04852514333218355,
        0.3220480223517232,
        0.016931615348462714,
        -0.06662864555409709,
        -0.020235609673519395,
        0.210689808084577,
        -0.27341399140915046,
        -0.19078673483376524,
        0.2337618595205329,
        -0.21338765827252273,
        -0.005957869449547903,
        0.040019943606948105,
        0.026600231566626553,
        -0.2287829717680101,
        0.32309481188001404,
        -0.01835602244631046,
        0.028793114073020876,
        0.04062979791006832
      ],
      [
        0.001450867372715492,
        -0.04748636217093605,
        -0.19232386844182048,
        -0.09431527038924684,
        -0.10353707983289284,
        -0.13726861988089015,
        0.3310040638488609,
        0.3169107790677426,
        -0.17761024215767196,
        -0.08630494089078244,
        -0.17504559481134233,
        -0.04082244882715458,
        0.2690955158184232,
        0.1319853551348879,
        -0.25025039927068915,
        -0.10770625324759309,
        -0.33678444716216804,
        0.024096580194640116,
        -0.00006555990165868497,
        -0.18616119021055372,
        0.034080767733643935,
        0.04891541265394106,
        0.16408970794515337,
        -0.293037718241346,
        0.1249603121809133,
        -0.08776859763342487,
        0.10640686357501616,
        0.29690768521125105,
        -0.03792797447608426,
        -0.03878406438681559,
        0.17931653398282338,
        -0.12468774879659064,
        -0.07631644444038632,
        0.06276338689220268,
        -0.24131624913329325,
        0.10303895118111228,
        0.019254725032020636
      ],
      [
        0.0315207944359443,
        0.04851177536787604,
        0.3325410374240339,
        0.31551535171054707,
        -0.04960713214554513,
        0.01568625975333987,
        0.007378737390036361,
        0.15322467795337352,
        -0.013229161141595946,
        0.2746735387092098,
        0.03302386701519133,
        -0.19733130360735368,
        -0.22334294206524538,
        0.007773051442387435,
        -0.2637395757133173,
        -0.1462501479666558,
        -0.32950962367143266,
        -0.14343213842881988,
        0.25554721111538486,
        0.12448065124453839,
        -0.2002570032427732,
        -0.2899087900272689,
        -0.04305344872754424,
        -0.06557600258911944,
        0.11860268079215186,
        -0.13175386313714105,
        -0.23512092925928058,
        0.1664146141518315,
        -0.18415080755507005,
        -0.028126876835557424,
        0.10616943392987771,
        -0.15859014697572027,
        0.12794012575946012,
        0.12313597116548392,
        -0.14581397995035128,
        -0.16720145533940628,
        0.08441968344638007
      ],
      [
        0.257925407910831,
        0.03912548355233614,
        0.22337944870380316,
        0.29897526680333336,
        0.1630339679291179,
        0.2567120582961488,
        0.02173982213117054,
        0.015996062198328775,
        -0.308878535774523,
        0.10700836104760725,
        0.3427901502379855,
        0.12361444499743723,
        -0.3221979774798381,
        -0.2662480033597337,
        0.13224738544145714,
        0.31113115162395727,
        -0.25262906037477023,
        0.12770564146997515,
        0.09187350729838312,
        0.3123839225164919,
        0.2499642252717587,
        -0.20231661635767456,
        0.14287836076681903,
        -0.08978958344755089,
        -0.09223725394499183,
        0.10999865417434651,
        -0.34282762100920205,
        -0.21127844684015823,
        -0.2914607052760977,
        -0.33231507635841734,
        0.2129133527891401,
        -0.20400236848467412,
        0.06492590005115129,
        0.10181491230733963,
        0.3026414558193817,
        -0.2730623123551428,
        0.19279907043455707
      ],
      [
        -0.019451604968056202,
        0.1559548217373355,
        0.060842048614484556,
        0.019423402736949702,
        -0.31180952051336835,
        0.10849863937230864,
        -0.280911719528543,
        -0.08841765066279805,
        0.2698327640537012,
        -0.3129152273627057,
        0.26194776880006526,
        0.13517944062125287,
        0.3377016882041703,
        -0.023002989035551535,
        0.2296234569488898,
        -0.028796596443194877,
        0.16021299683368778,
        -0.19138613054929723,
        0.2823809548479254,
        -0.30609158675288795,
        -0.3152191902183936,
        0.03272213488429926,
        0.2130446699072494,
        0.14772376468399756,
        -0.26295381646627003,
        -0.2380130529774951,
        0.2546260851812607,
        0.14629304478640265,
        -0.31775865509909396,
        -0.014138827782159358,
        -0.31089455742672467,
        0.18372519542182936,
        -0.19982871734271476,
        0.19356430223296622,
        0.15644785468155725,
        0.1962360274612956,
        -0.2323840374901741
      ],
      [
        -0.23822366589117794,
        -0.18380693203988982,
        -0.22450502078956774,
        -0.3202778206760216,
        -0.271629331485305,
        -0.2599142997128823,
        0.02562535973242619,
        -0.11846523937890616,
        0.08132077769812912,
        0.25107606406815625,
        -0.014937613443221032,
        0.1321662929181845,
        -0.08365891300024553,
        0.18789812552055768,
        0.22062803509516732,
        -0.18942454214987417,
        -0.09229886374106389,
        0.0389394968340705,
        0.29131411656073253,
        0.21831225405183724,
        0.17077109336039137,
        0.17057583540201376,
        -0.22610100650367493,
        0.14077100790325592,
        -0.07063553680795409,
        0.3349116228024976,
        -0.12462713200036266,
        -0.05618088090010942,
        -0.3153607062775368,
        0.12732162156833088,
        -0.09859655056037817,
        0.1600681859800614,
        -0.01438278730613718,
        -0.013366063219808988,
        -0.19487779184166712,
        -0.2341795076529693,
        0.2411450545348302
      ],
      [
        -0.02942336047545574,
        -0.0321838360295949,
        0.05125920331130074,
        -0.17187399145079424,
        0.022308550614221767,
        0.12978550197827055,
        0.24331536114154523,
        -0.05163771591451888,
        -0.18911567387229475,
        -0.24568355362921554,
        -0.15446590933548407,
        -0.25006919516648596,
        0.047994776507703674,
        0.31030900125726785,
        -0.2910502246418302,
        0.26344391950812557,
        0.11962828658311764,
        -0.08862030022170814,
        0.017964460287214157,
        0.22873985033762573,
        0.2536731097779035,
        -0.21276088851679248,
        -0.32254983377291274,
        -0.05467855725586018,
        -0.27403283780446125,
        0.2461887811641072,
        0.0027039090910092045,
        -0.11879406899940839,
        -0.29656060174689985,
        -0.25995744480083505,
        0.333836856612505,
        -0.10883937579345768,
        0.1919199467647697,
        0.327781910137299,
        -0.14285251300343746,
        -0.18774615824691265,
        -0.29153498027283736
      ],
      [
        0.06656450801547498,
        0.058050456242497994,
        -0.1224847861796792,
        -0.3323802221184377,
        -0.33080194753172476,
        -0.0027782853859661394,
        0.10749877477766734,
        0.17301617281841514,
        0.0007375748465488496,
        -0.33383183310136405,
        0.1546759646700852,
        0.13843293252699335,
        -0.1138927166666697,
        -0.33592024345266797,
        0.25253011072211035,
        0.24009779992805919,
        -0.16197479844692775,
        -0.0014634792387317463,
        -0.06261172814003435,
        -0.2772117364234262,
        -0.23707824739146208,
        -0.07521157958649755,
        0.013306197858708402,
        0.3023555447006507,
        0.13096218022656797,
        0.035388759821831706,
        -0.26577024442491437,
        0.09482678956680518,
        0.03284434873020181,
        -0.0330405244256583,
        -0.08807876760002598,
        0.21966936096726447,
        -0.11495117061353649,
        0.04393527645241302,
        -0.3240335905203804,
        -0.3378256302674078,
        0.24480327254176576
      ],
      [
        -0.109292972578695,
        -0.13899967605398694,
        0.28911489107558047,
        -0.17844610036921232,
        0.06761337041808946,
        0.17036275473015067,
        0.15790657043920692,
        0.3134421045094326,
        -0.11371719789815121,
        0.28311438464370425,
        0.11450459638592558,
        0.33796107362287525,
        -0.2592637901834651,
        0.08286081952719176,
        0.08467169534760582,
        -0.20821770400181522,
        0.055276646824088616,
        -0.28637683934296243,
        0.12972542350674965,
        0.2760922484782837,
        0.042545737058031996,
        0.25960293138027185,
        0.2966941377743188,
        0.17516740879357723,
        -0.25358852055959935,
        0.25364504854360276,
        0.07093553254827345,
        -0.34141112937418217,
        0.09239410473927434,
        -0.24138273109813108,
        0.1747150311072913,
        -0.1592586590737674,
        -0.1079792850074755,
        -0.17624126596892314,
        -0.2516462743076692,
        -0.29333400831862466,
        0.24939007260822393
      ]
    ],
    [
      [
        -0.17460341045976827,
        0.0930094648067562,
        0.07203592070140385,
        0.16512788423272068,
        -0.09617069747108128,
        0.12169051706205108,
        0.00857955968608426,
        -0.2693664758196132,
        0.06848850245969118,
        0.24127828718861938,
        -0.28124085841247115,
        0.17543375579953785,
        0.15807276362278683,
        0.14716490322195064,
        -0.09104675958585379,
        0.22222996709521708,
        -0.32208281379679055,
        0.13616641554109205,
        0.3364306884706801,
        0.25357788462597347,
        0.26259879300322647,
        0.08191366766879649,
        0.21480785896262472,
        0.21936160743144556,
        -0.03931576477320442,
        0.10286886885939805,
        -0.03246776583844779,
        -0.29830600385871514,
        0.010845196193461415,
        0.06101544771253392,
        0.15646136528625598,
        -0.09929088751050535
      ],
      [
        -0.003291415065269143,
        0.17567275316581815,
        0.015256629667944221,
        0.2271156616556233,
        -0.06048033466387687,
        -0.21451527131003148,
        -0.26765402262221716,
        -0.12763364781423692,
        0.15870340738424032,
        -0.09405378761975594,
        -0.11477913192541675,
        -0.32846385269121114,
        0.15621671529422992,
        0.23946740409007555,
        0.06156173288848943,
        -0.17273886118159035,
        0.10679769494760022,
        0.21200728693642373,
        0.029817672834599906,
        0.10807152759505223,
        -0.035750757061054406,
        0.0530419941020861,
        0.03234528107253154,
        0.15824950333388926,
        0.0017565827686091828,
        -0.2781012978718316,
        0.2993394967173966,
        -0.24199030664941656,
        0.3170802808174283,
        -0.019278068326398057,
        -0.215185493009526,
        0.2263733760301962
      ],
      [
        0.11459774006489021,
        -0.2738246772132401,
        -0.32142908796396513,
        -0.30976806136150364,
        0.07936746152202129,
        0.2998653957096025,
        -0.29441956715485695,
        0.12467920053966175,
        0.32891409583207126,
        0.15318037293183479,
        0.12087604774847116,
        0.02106381438003402,
        -0.06152706445569395,
        -0.25092969715552016,
        -0.0381071240201547,
        -0.06839069371983769,
        0.318417083772443,
        -0.05682126147128713,
        0.13630255273222014,
        -0.09848470812170887,
        0.029647389531401003,
        0.22585269677448255,
        0.3264519159998432,
        0.3393548290738267,
        0.17597664656538087,
        0.22214744508196343,
        -0.169037909607755,
        -0.20330382395045823,
        0.13966709168041708,
        -0.1185298679203175,
        -0.239322462786219,
        0.30048492318350845
      ],
      [
        -0.0725737831412065,
        0.04077682687046991,
        -0.1155466838887998,
        -0.27523786768759584,
        -0.2236026883068114,
        0.018562253003726215,
        -0.20569504726174695,
        0.20867268922560928,
        0.07735806233129122,
        0.2393458341909525,
        0.1622221858790131,
        -0.15602045568047493,
        0.3426158821436969,
        -0.2002678642801315,
        -0.2062296219798693,
        0.040944209757087346,
        -0.1874855739547641,
        0.06980258199317513,
        0.33044019301454214,
        -0.31230745213211375,
        -0.0496207335108122,
        -0.13775192809977072,
        0.09546936518149857,
        -0.32512818046369035,
        0.13920213439269757,
        0.2119531644749802,
        0.005556008479093488,
        0.16584093101251002,
        0.25353132116004057,
        0.3154973515349641,
        0.034121519623597885,
        -0.1994071650684847
      ],
      [
        -0.2724010027361599,
        0.22442764327763703,
        -0.22355772647432193,
        0.32335476837569893,
        0.11078772402354398,
        -0.1967606948996719,
        0.29164479317525366,
        0.2486345963668775,
        -0.1794036605773541,
        0.1214700573204685,
        -0.3107890032383391,
        0.018718750482728974,
        -0.12244316934209074,
        0.3057218947400057,
        0.18028326446187587,
        -0.2750462449851368,
        0.23533100529837364,
        0.08534954893346924,
        0.013704803200680904,
        0.12872836385712128,
        0.263875857848579,
        -0.12177940763543288,
        0.3168286544495195,
        -0.274765164204172,
        -0.037462327152828656,
        -0.1754720651899771,
        -0.16791557985374664,
        -0.30086801170406346,
        -0.08887710221180212,
        0.28826004194967375,
        -0.142520850738484,
        -0.026178176725570934
      ],
      [
        -0.24357542797013798,
        0.30381724567943375,
        0.1886034783705252,
        -0.05519618429169215,
        -0.2124811354829027,
        0.1038863250856712,
        -0.20365423179607414,
        -0.27326849618998417,
        0.302888401049983,
        -0.1270952148943185,
        0.22850540692975313,
        -0.2161684852846609,
        0.19456025506198077,
        -0.2832202238705861,
        -0.028009208398700858,
        -0.016295781760880368,
        -0.09019585656692675,
        -0.1850443394152132,
        0.16195407252199184,
        0.09739492755778628,
        -0.265341749586154,
        0.052965704524209456,
        -0.15816202585736022,
        -0.32611345553501225,
        0.05374373078394595,
        0.3128413530163158,
        0.07450231667066304,
        -0.05025022984261557,
        0.08915275681577833,
        -0.31236980868481506,
        0.08955966533218729,
        0.02354840326223412
      ],
      [
        -0.03815908370458648,
        -0.3288645331184769,
        -0.11580500170760777,
        -0.2848464305003895,
        -0.22386095778592677,
        0.3139769693634266,
        -0.10101886705701282,
        -0.21072092124165548,
        0.33544470997998804,
        0.2800037313189317,
        -0.2091587152785141,
        -0.017094612836108525,
        -0.2623358507688307,
        -0.10246251010402874,
        0.028923796209561037,
        0.33869904596856465,
        0.2646789106044482,
        -0.1489534065450911,
        -0.26727058416184046,
        -0.15428427350488952,
        -0.03580123134745844,
        -0.29786137722255,
        0.12840328173913623,
        -0.2827465497908095,
        -0.2975724306375763,
        0.15270071729280754,
        -0.1149800674775048,
        0.29939901131919283,
        0.09841768035816056,
        0.1911478865180542,
        -0.33178374619399575,
        0.02989710258062428
      ],
      [
        0.07241330834748011,
        0.32418412026369553,
        -0.08999958792900375,
        -0.30117547795998867,
        0.20894672961221,
        -0.24398572932750606,
        -0.017910429615051904,
        -0.20268401853734727,
        0.21207052028334222,
        0.3131197025666334,
        0.3190177791493361,
        0.2723379106587635,
        -0.10216810393344336,
        0.29390331731760516,
        -0.1036027650176756,
        -0.16585441810022825,
        -0.10260470270825423,
        0.2397014275372576,
        -0.11173807110499465,
        -0.07392512050228361,
        -0.0870057886614754,
        -0.15499619352978272,
        -0.08759180205192518,
        -0.0020833440634902,
        0.03622821962264389,
        0.03690373261310986,
        0.061329808569004496,
        -0.08168889632162774,
        0.2891329782381204,
        -0.26188722356921074,
        0.0754586799861845,
        -0.34062158773902373
      ],
      [
        -0.1890792691295705,
        -0.036409250573840035,
        0.15451408377857173,
        0.2807858000302729,
        0.11784425970948376,
        0.31716174997682817,
        -0.1263820786841033,
        0.0908389665239901,
        -0.27626245209949735,
        -0.11488307469873973,
        -0.2939926643936754,
        -0.21674411888725267,
        0.10369923286291083,
        0.21169241602817895,
        0.158361541609277,
        -0.29977684967462614,
        0.31195660809714437,
        0.19499399139187595,
        0.2072236633237638,
        0.05213356229640026,
        -0.1962253084986076,
        0.27561958688695726,
        -0.18067685531289834,
        -0.33296674322621794,
        0.026144332294468386,
        0.2191618043028884,
        -0.19603415348564512,
        -0.0417807679603463,
        -0.30483203436637,
        0.14607965718662996,
        0.12107851200467551,
        0.07434016854149195
      ],
      [
        -0.20707214408058308,
        -0.15413123832311518,
        -0.24765320357108017,
        0.2625290340040856,
        0.042566069475843626,
        -0.3306487765524804,
        0.3172045847062212,
        0.22102058208547432,
        -0.09953898265893205,
        0.3036158456101546,
        0.259704848933862,
        -0.3413841683898215,
        0.09360657908024361,
        -0.16806226614640296,
        0.11097489975620561,
        -0.061575492817848354,
        0.15593768514108747,
        -0.23988172177527067,
        0.12958326809205145,
        0.32032582547687766,
        -0.15466557301620992,
        -0.22416097096607118,
        0.0037941501783955722,
        -0.0009732967775858414,
        0.2781269093629835,
        0.26038432853596477,
        -0.3340120067236613,
        0.24747276339162155,
        0.046054112029750904,
        -0.13826867962291176,
        0.22901127122909176,
        0.034079914314018855
      ],
      [
        0.12065117695788224,
        -0.2205132155840776,
        -0.12361114595855766,
        -0.15995481949704426,
        -0.24815480383156144,
        -0.10407438863686228,
        -0.25693130916774026,
        0.1780111477501956,
        0.2779037315536615,
        -0.333467536074021,
        -0.19884370330013112,
        -0.18990782153427682,
        -0.2285027600358315,
        -0.1693490278964093,
        -0.10672802749603091,
        0.2522923285200301,
        -0.3168807974975947,
        0.16768612032263902,
        0.0261190443442334,
        -0.04400792026806688,
        0.1518317897156659,
        0.29061076866989793,
        -0.2782527038346958,
        0.2149922172819922,
        0.28352556326960937,
        -0.042209951288503855,
        -0.0836473634233052,
        0.3052830710577686,
        -0.1939932301455235,
        -0.2813882635752277,
        -0.053746506820853746,
        0.1376885909254567
      ],
      [
        -0.3269681805584754,
        0.2333453213982563,
        0.32530139236606676,
        0.016684831151005608,
        -0.14250661160339323,
        -0.15031581282449882,
        0.1395675847856137,
        0.005194567845995979,
        0.012353720987137828,
        0.21009528107587544,
        -0.013841364155447011,
        -0.16924492965478724,
        0.2633077913319967,
        0.1604662844855967,
        -0.041780700995033504,
        0.23592209294025585,
        0.268618904522448,
        0.01779432676904097,
        -0.17451470194457266,
        0.319323993694601,
        -0.3058511154561217,
        -0.31663563332007033,
        0.15924280693106935,
        0.2801804837900898,
        -0.22411406450695937,
        0.32811797867131703,
        0.006347318080281383,
        0.1623917351548287,
        -0.024301732235615492,
        -0.29184199341741845,
        -0.1895857703535311,
        -0.3363134394757469
      ],
      [
        0.17993901155743092,
        0.2204374963814048,
        -0.17137967598450296,
        0.2900844785489061,
        -0.24237259420223883,
        -0.19981883336127274,
        0.18579363721719072,
        -0.09157298336618364,
        0.07871103843581184,
        -0.18437163315537047,
        0.24314081424662953,
        -0.22894252243361568,
        0.22792638176898478,
        -0.17788349978777523,
        0.24233294530364763,
        0.06420346254590992,
        -0.2804565665534371,
        0.2057756081701106,
        0.21913216119678963,
        0.09643645477514423,
        0.20998105503957104,
        -0.26100604270466865,
        0.30644947221903357,
        -0.2427385076590612,
        0.18801838092978523,
        -0.14249807704522435,
        0.14924803738709264,
        0.06493030193097793,
        -0.11123374989503937,
        -0.31771657494311084,
        -0.300229092011282,
        0.2852673817693984
      ],
      [
        0.32257701048114157,
        0.038626879799758596,
        0.11058806411939298,
        0.34256314570353924,
        0.1608309767154143,
        0.1046038829853907,
        0.02138904530686997,
        0.16739578639746805,
        0.22467986076240293,
        -0.18422346997655073,
        -0.06485893239513357,
        -0.06314207545990691,
        -0.14167777345893562,
        0.029615047283647833,
        0.31097939155866977,
        -0.07115301193877133,
        0.056904693846564436,
        0.125047102047306,
        -0.15764516398449008,
        -0.07307291421636325,
        -0.14711729050855354,
        0.11557842135889401,
        -0.10694455228116195,
        0.05568402548869805,
        0.25762679961559115,
        0.18051926586013262,
        0.026477413240825032,
        -0.20679062709632845,
        0.16576818183442737,
        0.1428772013376956,
        0.2780892004662689,
        -0.20023528532332716
      ],
      [
        -0.18871711664388433,
        0.02670030721441602,
        0.29872383877306036,
        -0.25167863457097994,
        0.08930938007526618,
        -0.04697171130149891,
        0.33978199390911773,
        -0.13052556184987932,
        0.14420533631833626,
        0.2981443505085855,
        0.12991236871135947,
        -0.28287764092049184,
        0.27938087722259314,
        0.23727213525912888,
        -0.20355214605276667,
        -0.012292450418000311,
        0.3371222130717961,
        0.2726542505508363,
        0.06539184047784158,
        0.055318177126615686,
        0.08045929039884997,
        0.2489217144773615,
        0.21429516021995426,
        0.19034058731348608,
        -0.05683942482893256,
        -0.2532360139342451,
        -0.21745934830157,
        -0.11623074015998236,
        -0.31209700661342255,
        -0.29502401979658055,
        -0.05051556446084127,
        -0.05062945456733109
      ],
      [
        0.1153301622666646,
        -0.1669385599022777,
        0.21200822402714076,
        0.3044664364608029,
        -0.24360833401200366,
        0.09443505042076678,
        -0.27741404071044506,
        -0.26927244580174164,
        -0.213782217310253,
        0.2916135208115486,
        -0.187592543901201,
        0.10922303380810455,
        -0.3401587607127246,
        0.1814574058423431,
        0.1819875728455415,
        -0.09762595170243576,
        -0.12118012093962374,
        0.05719804819976132,
        -0.16166556302475962,
        0.06525142410910123,
        -0.24971328794780828,
        -0.06748593265733266,
        0.15706189720000957,
        0.20260195449028667,
        -0.19206707037076726,
        0.2242657430366351,
        -0.03265575310435043,
        0.0835193836419858,
        0.10235691319216084,
        0.24156664119812327,
        0.3030686545012588,
        -0.29192397063260805
      ],
      [
        0.3155756847117827,
        0.1264997509100938,
        0.24677835436960743,
        -0.20220513066790205,
        -0.17682449085924215,
        0.09401658317661454,
        0.18653749751650323,
        0.19279364009305816,
        0.06370208979810132,
        0.14214714251619953,
        0.30468932331163007,
        -0.2683611638573048,
        -0.12233052190599478,
        0.07709798817967067,
        0.11649870653763872,
        0.15268560584628782,
        0.09720237211279908,
        0.186762249885649,
        0.27354739528551936,
        -0.27656185410647194,
        0.1574579907125197,
        -0.3401040811890705,
        0.018099856144223492,
        -0.10741849891946603,
        0.09601050654160004,
        0.3115379907272861,
        0.11882112300758296,
        -0.08999517016264463,
        -0.27062639809668987,
        0.26825030277871614,
        -0.06369138383874928,
        -0.014272873945589959
      ],
      [
        0.2011268910495984,
        0.2824015423215593,
        -0.2617203767912929,
        0.1473408776824504,
        -0.17635901160269188,
        -0.20126140516075003,
        -0.3266413735815255,
        0.24518113449931117,
        0.09470212240640552,
        0.16092379857767086,
        -0.06855871915804068,
        -0.13941382254358992,
        -0.25505251473861434,
        0.31425738439693135,
        -0.15437177604035573,
        0.037684273099929666,
        0.028037136030792997,
        0.3110924349980119,
        -0.0647225885976968,
        -0.3370053253124952,
        -0.009532603732658573,
        0.044152110386679155,
        0.10474249847181166,
        -0.2671753166769276,
        0.05273844290774793,
        0.08419952855231821,
        -0.14736060968233858,
        -0.25953358732007886,
        -0.2500332724124731,
        0.1432697410466366,
        -0.2616693638231968,
        0.2566564513844703
      ],
      [
        0.19277777766539977,
        0.009656143320719679,
        -0.09144264406851782,
        0.12599072736432676,
        0.3039042045632508,
        -0.09652507806862912,
        -0.24853206697184071,
        0.2587755551018858,
        -0.32637510534706726,
        -0.007792660889344993,
        0.2900347098416797,
        -0.15917073188620232,
        -0.20101599376512416,
        0.1907363830579925,
        -0.07547148609873222,
        0.16573226004245395,
        0.2546556501239678,
        0.14720931111975194,
        -0.3358881298789554,
        0.24207574735045406,
        0.07760942003716453,
        -0.17424745265603409,
        -0.31370819518226256,
        0.33441556637707476,
        -0.3266713247280568,
        0.3345736040755593,
        -0.03898156837734501,
        -0.22091314679248503,
        0.18184137834752295,
        0.16367260030912562,
        0.102587636593787,
        0.061665732329218514
      ],
      [
        0.0023046230417685942,
        0.09815229348882687,
        -0.01018316572965805,
        0.2729455171581698,
        -0.2653145734910335,
        -0.18258582088326755,
        -0.32175287743473296,
        0.13323296891001307,
        0.11327333418559388,
        -0.3407124654278795,
        -0.20977336577398376,
        -0.26857177008553607,
        0.10945080399470153,
        0.05795718055364041,
        0.283838873805007,
        -0.0328321503326266,
        -0.06914216381846888,
        -0.33353466237281293,
        0.1439260357392121,
        0.24490301508427553,
        -0.2443986714652155,
        -0.27069592292578626,
        -0.27395137567807104,
        -0.24274535027260843,
        -0.23493373357962363,
        0.32288312543370773,
        0.2547864475021781,
        0.34000100232303204,
        0.23476768834276446,
        0.07677198633323501,
        -0.28182177330992636,
        0.2979250542247151
      ],
      [
        0.06859767582105625,
        -0.059121636094625396,
        -0.0980871818603534,
        0.10800213367656814,
        -0.23818844790044816,
        -0.23050796779332117,
        -0.10127211084928958,
        -0.025050955969708022,
        -0.1568704741146839,
        0.0041039738526415515,
        0.34265129626512364,
        -0.18043313691050644,
        0.058861968959886546,
        -0.30573716963214365,
        -0.12158368431399111,
        0.2602090948790868,
        0.2186910177456945,
        -0.13324048589298684,
        -0.014488146308560657,
        0.13586673723946036,
        0.00012930236597458178,
        0.1329698571553104,
        0.3014278402576342,
        -0.15544695029921768,
        -0.026677110952997518,
        0.03505336486819077,
        -0.08336476951976934,
        0.21722392477904012,
        0.09477657952500396,
        -0.33025628152555897,
        -0.29450729404259673,
        0.013933515083520143
      ],
      [
        0.1333759556176875,
        -0.25888848423238453,
        0.23900471709362464,
        -0.04449754756620672,
        0.053304680199729004,
        0.25855865816973184,
        0.2066703281200108,
        0.29236639776608714,
        0.2534390355577913,
        -0.03410274160676119,
        0.2215629076198274,
        -0.255276197353619,
        0.15699777506047546,
        0.19365629636982368,
        -0.04311009837793084,
        -0.3248091785238567,
        -0.1145510499869064,
        0.11588239292834401,
        0.2831393419630674,
        -0.20276171663422374,
        0.2254186721930041,
        0.14428572243023974,
        0.10096154177419964,
        -0.14563147841276686,
        0.04654606119441379,
        -0.28735521913036977,
        -0.04453012364199127,
        -0.26818901099973413,
        0.16132522690479328,
        -0.03800306596013692,
        -0.012897199817861416,
        -0.10459156186755439
      ],
      [
        0.3126209852167164,
        0.28435518024278245,
        0.1928064046447278,
        -0.03825068200628379,
        0.28848650907238066,
        -0.009815167485282827,
        -0.01874605970051446,
        0.3134106803351469,
        -0.047967310605367186,
        0.07685181520958656,
        -0.31849836010536003,
        0.026096125099504264,
        -0.06406132109144225,
        0.30253573013957563,
        -0.15917575919023472,
        -0.25239354377351286,
        0.2125644669548657,
        -0.20127409391435983,
        0.05739002536731991,
        -0.09389406502276945,
        -0.04643339238573296,
        -0.15821842502825298,
        -0.029102721480171567,
        0.13598695801679755,
        -0.26156956765991685,
        -0.19323582548758797,
        0.12098811123607789,
        0.04044651958638229,
        -0.3103774596705455,
        -0.029494773438826616,
        -0.3051322000943734,
        -0.1329559785039089
      ],
      [
        -0.13086197742538094,
        -0.22943268368754355,
        0.25301184864151754,
        -0.1668176057836322,
        0.20155465251196153,
        0.02910691328908599,
        0.15455914055922138,
        -0.30810567064241756,
        -0.031186525651063113,
        -0.02463125778225389,
        0.1084799068335015,
        0.0030946526413569986,
        -0.1535060157049944,
        0.21118342813347096,
        -0.22707309449669966,
        -0.15818172944748532,
        -0.30827707591887954,
        -0.2139622048176722,
        0.3047869742398613,
        0.13288691159070204,
        -0.1603101414596476,
        -0.26977684984750183,
        0.16266705650161245,
        0.02812080242174403,
        -0.10174734070670108,
        -0.03870062687898196,
        0.33374267939250285,
        0.06652752417201457,
        0.05448590547276061,
        -0.1396824411661909,
        -0.18771794116824547,
        0.2814093151604213
      ],
      [
        -0.13680587630801966,
        -0.27557381285411614,
        -0.3409953063769485,
        -0.031149528222644607,
        -0.17385942109024524,
        -0.11037034945886476,
        0.002242741437700868,
        0.11695312796497492,
        -0.26749043068904954,
        -0.3065588337260318,
        -0.33489991253304346,
        -0.18109266832738735,
        0.1432963300564174,
        -0.26864946549155766,
        -0.1177263108477748,
        -0.13012437235068564,
        -0.13397113976280353,
        0.13453258694875692,
        -0.11910249181713761,
        0.3244337750684711,
        0.19375774414132502,
        0.008010653568415294,
        0.11090029792661998,
        -0.10271594198456849,
        0.1626378228243563,
        -0.20479276381625336,
        -0.25110025761143373,
        0.050844909842390706,
        -0.23773380225710214,
        0.3102263137112102,
        -0.2423507788431129,
        -0.2646575474519655
      ],
      [
        0.1668182430128286,
        0.32439454069020907,
        0.24491298967027714,
        -0.2933107327854251,
        -0.3055820550280629,
        -0.2865580466295108,
        -0.20782783214570827,
        0.010547395839193952,
        -0.17041193788555195,
        0.2298489615481037,
        -0.04855379239384011,
        0.19948244252376995,
        0.15053949001834432,
        0.10129456839788886,
        0.2639521784622631,
        -0.14200964351931883,
        0.17977088979433659,
        0.2768534771727757,
        -0.21487990146834793,
        0.04547556214626641,
        0.1924766707449181,
        0.295041440421462,
        -0.1410107846665418,
        -0.28121663393408414,
        0.05488468150710091,
        0.32271922521391844,
        0.11732563961184611,
        -0.31313820908489787,
        -0.29126310631055335,
        -0.2438390906475924,
        0.0011573166925379352,
        0.26103870259214207
      ],
      [
        0.018871223078607557,
        0.2810347183868069,
        -0.33308021324699444,
        -0.19877302927050447,
        -0.2379938843549836,
        0.3155541369373072,
        0.1844652621343496,
        -0.026184151529863753,
        -0.29705278439531185,
        0.02875905177206639,
        0.013540268926064025,
        0.09346845666923581,
        -0.30862744028749134,
        -0.010638867145130959,
        0.320412493231426,
        -0.021276896246433308,
        0.15336070863671025,
        -0.26195746372461265,
        0.2787281931034537,
        0.16454873755502447,
        0.31399170411956173,
        -0.12668476777369203,
        0.2443887481528984,
        0.13069332293582092,
        -0.04731788257002195,
        0.07795187350695493,
        0.25351561307404497,
        0.23617051779478243,
        -0.07806078517039539,
        0.21743985650607806,
        0.1931119656039864,
        0.07844641505671501
      ],
      [
        -0.21367416081640378,
        0.06617256361752183,
        0.08499794086500712,
        0.12495330011554606,
        0.21624032704226454,
        0.294224511638079,
        0.2595886841529737,
        -0.24697347699674221,
        -0.12346467860668262,
        -0.2776668188367145,
        -0.2251676850967111,
        -0.27827950579945193,
        0.33377643952071173,
        -0.0027942503282177844,
        0.2068929209195171,
        0.07154707440591362,
        -0.08633744656392317,
        -0.13346888391948533,
        -0.19271131449979056,
        0.13658869605675206,
        0.20556793376010934,
        -0.10299425851891414,
        -0.17255539382446783,
        0.047388625144753116,
        0.009397602927883775,
        0.2602363509849664,
        -0.03949606310320802,
        -0.1716082298553361,
        0.22050505738611154,
        -0.11246785428564066,
        -0.21069982118988542,
        -0.26623044056059375
      ],
      [
        0.15603378162927595,
        0.026201802895468584,
        0.27199154191629044,
        -0.15650506506996192,
        0.2572514088168128,
        -0.2701912570440121,
        0.2933218294447058,
        -0.030493188051985365,
        -0.2821266749474715,
        -0.3182260549307793,
        0.3244961273289039,
        0.005395856297403967,
        -0.17105843410838859,
        0.0027454178139523777,
        -0.32780067676963104,
        0.2171130821161788,
        -0.2849538378355733,
        -0.14481622637190997,
        -0.08179298090276554,
        0.09024441540845435,
        0.22683833299551465,
        0.10860287256296508,
        0.11151590571411069,
        -0.1661423717713238,
        -0.10766379771876097,
        -0.14788531055332751,
        -0.09142043304075459,
        0.04570823800985674,
        0.024295353751599524,
        -0.05512393009603944,
        0.07133991496689285,
        0.34206466292890875
      ],
      [
        -0.30330129099000847,
        -0.24791729849788083,
        0.04980186489498656,
        0.08035422014489563,
        -0.31120482168241964,
        0.08619516348325196,
        -0.03201616537951174,
        0.236334401526278,
        -0.14591731608822103,
        0.11747635603188905,
        0.1881427136189317,
        0.031129640729416874,
        -0.29512227340238684,
        0.3310457223139907,
        0.26503321727948886,
        -0.2683909212551737,
        -0.16137753487885853,
        -0.18350217032309685,
        0.040100765784566283,
        0.0478393365242728,
        -0.09688394918132645,
        0.118049146650051,
        0.13055370516670628,
        0.14719872110460247,
        -0.09284072380743436,
        -0.17320549815053163,
        -0.0718168408340103,
        -0.31542749281071386,
        -0.19366729064382907,
        -0.23974590204539598,
        -0.011652282989737306,
        -0.02708110865138852
      ],
      [
        0.25153331315941735,
        -0.13224682790585737,
        -0.210429946205668,
        -0.20236443992534353,
        -0.010080359173704867,
        0.021989086693600057,
        -0.19351688000878195,
        -0.22968190752368017,
        -0.27853336762190906,
        -0.3102924732460509,
        -0.11360297850013931,
        -0.12421950259501227,
        0.2352744437708802,
        -0.22345264437525786,
        -0.1450781433048987,
        -0.08727546558043103,
        0.25619993518650425,
        -0.20489088701287406,
        0.26068200365236566,
        0.2299524594736238,
        -0.011889145041336424,
        0.10473214571843231,
        -0.07263185398021077,
        0.10013704607754387,
        0.29853148872144636,
        0.30137717775993184,
        -0.10375361992060242,
        0.00019707794404222323,
        0.0772513019671035,
        0.08935007884004431,
        0.3092194609488465,
        -0.3222339179178215
      ],
      [
        0.3110411228929097,
        -0.301812379314655,
        -0.25418678565047137,
        0.15801460145009877,
        0.04928427190097551,
        -0.20363692545355985,
        0.09320576189058105,
        -0.2933888533293774,
        0.2946124951464448,
        0.3245684168717304,
        -0.07918117763618593,
        0.005917322720044971,
        0.20556019008362475,
        0.27495265591811985,
        -0.3082884811779344,
        -0.24259159636279276,
        -0.270177540618816,
        -0.254726986513609,
        0.21000094137261843,
        0.11999573339607084,
        -0.08482647820328315,
        0.1650069544459774,
        0.1293655759150425,
        -0.00041964879601108507,
        -0.10760657740262425,
        -0.22493565854898817,
        -0.30269812613629365,
        0.3402433272234798,
        0.028375247983263796,
        -0.11073793743125873,
        0.1534536396178517,
        -0.24749325430057575
      ]
    ],
    [
      [
        0.13216171718005548,
        0.2121839229633366,
        0.06345924692270949,
        0.0485461299925079,
        -0.005649556785461696,
        -0.14511542660048438,
        -0.25856827714876834,
        0.06219319691361047,
        0.288310846314851,
        -0.08312762923172556,
        -0.045524776459910155,
        0.10198415283679318,
        -0.17035229053734255,
        0.1738654395864015,
        0.304781703295326,
        0.07838836023766865,
        -0.12588758052986712,
        0.0365537427933586,
        0.23957310514874802,
        -0.1782444712747608,
        0.22585112266279478,
        0.3132040585431462,
        -0.0655351065180455,
        0.19054256776542505,
        0.22048226200355364,
        -0.08789153604006145,
        -0.14756876176100067,
        -0.05044697874930193,
        -0.14467323445172753,
        -0.31471655067385823,
        -0.05488012518349805,
        -0.09828877802485109
      ],
      [
        -0.04506330699180783,
        -0.24822573605633455,
        -0.3350004671861469,
        -0.11078708679434754,
        0.03671554753180706,
        -0.017624890215890532,
        0.2986081519769542,
        0.251710275476909,
        0.24677971096899293,
        0.07832991331037686,
        0.10030855218996648,
        -0.04487411590210427,
        -0.22937894889689642,
        -0.017653628722244963,
        0.24745559301220704,
        -0.2429732447275147,
        -0.2923320564544599,
        0.03628517044390994,
        0.03404896686342118,
        0.04878194353645965,
        0.2383227433485609,
        -0.11549106519533386,
        -0.20308655771798453,
        0.25805980031949066,
        -0.31722817566529726,
        -0.011795831691777114,
        -0.33260028340755327,
        0.21028930789091765,
        0.0889450887370053,
        0.12016404918413914,
        0.21131636704246298,
        0.23372163682000585
      ],
      [
        0.00153212793498958,
        0.22297436603793191,
        -0.024760419493114305,
        0.2002028303388656,
        0.003288972210890473,
        -0.23979633090978503,
        0.07673820835718054,
        0.26206518313004373,
        0.17515892114257609,
        0.33539536204860004,
        -0.14491557877824637,
        0.013288632785355414,
        -0.2307187348709655,
        -0.22709998816679283,
        -0.007962072417658672,
        0.3374383844987851,
        0.04043433250727868,
        0.29299100765819114,
        -0.2377743156213572,
        0.05714189272129988,
        -0.12116542410749698,
        -0.24109346804080606,
        -0.08443184955337868,
        0.15753203135104715,
        -0.27688829796565156,
        -0.034906332334017964,
        -0.07015670483299724,
        -0.08562572954340963,
        0.15258787993466782,
        -0.2118120791169675,
        -0.0297286643105647,
        -0.30455924891777436
      ],
      [
        0.027128292067348125,
        -0.052682832568232196,
        -0.07778850534265369,
        -0.2831239358159021,
        0.13260787979606764,
        -0.10054123870749082,
        0.12784638921149322,
        -0.10865698709852972,
        -0.15619115756640478,
        0.012602020409556047,
        -0.2784326565544738,
        0.338353614685918,
        -0.024664818714341508,
        -0.15279691290838326,
        0.33296796726428196,
        -0.0729121146030553,
        0.32593004601120995,
        0.06502264168409788,
        0.01095144644245527,
        -0.005060653070198373,
        -0.32912517652205264,
        -0.026073155817464777,
        0.27832446118101967,
        0.22192373046360153,
        -0.20081029430462072,
        0.2651438988669555,
        -0.1346847465625937,
        0.28383605405486073,
        -0.22217464184364114,
        0.04844859244319527,
        -0.20034801574342243,
        -0.27686388893926184
      ],
      [
        0.26821358909930676,
        0.16033448512592524,
        -0.2981351758475995,
        -0.2516859772534386,
        0.032193647867991115,
        -0.08053823210138583,
        0.23064421560173504,
        0.018996737003606823,
        -0.194369403435922,
        0.0030631020674360965,
        -0.28929082978468484,
        -0.08649011434479237,
        -0.2347624719658405,
        -0.26853431536858685,
        -0.19433157294097714,
        -0.08973062764656764,
        -0.08359530108659502,
        0.20797427118078632,
        -0.11622794484811921,
        -0.03339931161907339,
        0.32417167127743446,
        -0.12088594662453239,
        0.336716507624843,
        0.32130343630869157,
        0.024381257379833265,
        0.12813797065206123,
        0.1690621376243489,
        -0.16062625816209894,
        0.035941127845487864,
        0.05056074347913897,
        -0.10655254921716853,
        0.291821037937885
      ],
      [
        -0.2323888403386032,
        -0.017001605194157055,
        0.14627680376364305,
        -0.2961922505839462,
        0.3371556191375909,
        -0.21558588535286655,
        0.24910393777387924,
        -0.2819158465796645,
        0.07761355957530908,
        -0.01569031982255087,
        0.2279108353168196,
        0.15809828581945168,
        0.23956037952442172,
        0.026986921681436904,
        -0.14819492924647526,
        0.15046253347641786,
        0.04971428435819153,
        -0.07565932996376029,
        0.1727585425186708,
        0.1714364696765011,
        -0.25355382344994476,
        0.11778336257855054,
        0.20825068592602297,
        -0.0756396563310417,
        -0.09171505472495362,
        -0.09917013093271754,
        0.1494834259617407,
        0.04038308070359964,
        -0.09878009795104997,
        -0.30536320712432646,
        0.08552685802794419,
        -0.25282558712383973
      ],
      [
        0.07041911790699512,
        0.26220272347681145,
        -0.0176186007391837,
        0.05246217861361169,
        -0.23034098310659956,
        -0.11183144738586584,
        -0.13006319256611207,
        0.058965435433241786,
        0.12224090670600934,
        -0.08545344330338789,
        -0.24979595237499014,
        0.3192502501652866,
        -0.31328864120803657,
        -0.22183246044239258,
        0.29554965402324046,
        0.2964498407459715,
        -0.2685247604355605,
        0.2665167028011752,
        0.1966000686099612,
        -0.18488441695886682,
        0.24610841694871172,
        -0.32050361453310017,
        0.3424416619653204,
        0.22983591439439172,
        -0.2633159805362934,
        0.11349484219012301,
        -0.23875615035483227,
        0.2981856147015523,
        -0.22205312943559224,
        0.2981055193243018,
        0.03745707859691627,
        0.29866478793813006
      ],
      [
        0.00656200343411345,
        0.1849133084095233,
        -0.1124772335257907,
        -0.04644419370066866,
        0.17705152820982312,
        0.08893968700052085,
        -0.05201271167960847,
        0.007714941873592007,
        -0.01608670546775981,
        -0.27646851934743416,
        0.08466168182383105,
        -0.13174944465834226,
        0.1987951713657528,
        -0.32740176839619967,
        0.018658211479503695,
        0.2540500663260457,
        -0.0541109992833777,
        0.16808464472477075,
        -0.1584829103101596,
        0.31182434675982634,
        0.04377263620520194,
        -0.0796915487126702,
        0.03555722128078492,
        -0.22115332036829005,
        0.1143761819270469,
        0.03980744118781604,
        0.3084747798822454,
        -0.2290408400678146,
        -0.13721468561758954,
        0.19729681920919945,
        0.19090245330828587,
        0.32826231989035065
      ],
      [
        -0.09254994567009778,
        -0.3040945806540724,
        0.21138630891278593,
        0.16358449231534072,
        0.2855436121363251,
        -0.3319747274911642,
        -0.07609066718452012,
        0.3384523363502924,
        -0.28455257456554445,
        -0.05583500225562005,
        0.09999169813364556,
        -0.20063279119679803,
        0.2511990564684666,
        0.05948252456590447,
        0.15406183997343026,
        0.08324537163780105,
        0.2608737351638761,
        0.10178553211175406,
        0.15354193292110135,
        -0.08673151871758034,
        -0.3327017222987936,
        -0.06016021799809873,
        0.18806657619925055,
        0.06568283343573494,
        0.03260670696373974,
        -0.10265363457553389,
        0.33672135626287875,
        -0.02102596628025244,
        -0.2149168923487202,
        0.10858355865623293,
        0.13340399944095954,
        -0.1973912261799264
      ],
      [
        0.16899198674917343,
        -0.25632028386001915,
        0.17827681916401644,
        -0.04603403976894971,
        0.07085863398748743,
        -0.1635794400079559,
        -0.18801153677012444,
        0.2483593422868005,
        -0.01646764450279503,
        0.3019098646286545,
        0.06186980875736825,
        0.31641651976009494,
        0.3329967111220981,
        -0.11205352383725531,
        -0.0012141538276670971,
        -0.017015154992853776,
        0.11175241375625766,
        0.1670718858678289,
        -0.1346612494588604,
        0.26100855174038834,
        0.06539247770703788,
        -0.10472697024124913,
        -0.3315151472118222,
        0.1101701222511578,
        0.2866017751195091,
        -0.12740398496708782,
        -0.2892985147568947,
        -0.13420871126154968,
        0.30121770702427036,
        -0.039887794316873115,
        -0.1494673708737917,
        -0.32261467176951025
      ],
      [
        -0.05815780388998232,
        -0.25761196208832177,
        0.16532013591125544,
        -0.004161229181735282,
        -0.1613283151578559,
        -0.26498456839610435,
        -0.042270744757818,
        0.30257766906864564,
        -0.05681656754378306,
        -0.07597834608698067,
        0.2925007117142587,
        -0.3418547743000682,
        -0.06618033822208547,
        -0.19956617607525187,
        0.32347877830296595,
        -0.31939874441080024,
        0.17213378169540944,
        0.20772342191198762,
        0.29039772346883347,
        -0.02275855558504508,
        -0.17394386816879676,
        0.1724267214056629,
        -0.007169510083632091,
        -0.2640162204901362,
        0.03602114081000096,
        0.2506656607385443,
        -0.31416064196244947,
        -0.13681832102627214,
        0.17519313474298576,
        0.2555747654704696,
        -0.15275228337333277,
        0.21730878701958417
      ],
      [
        -0.13568315813691822,
        0.24946036302949287,
        0.08452642432193042,
        -0.01387963715347712,
        0.03857849750475334,
        -0.27040485025118954,
        0.10991435581262693,
        -0.3165287219117764,
        -0.28818108091853895,
        0.22874669514372242,
        0.10329807413474634,
        0.021740207840586723,
        0.3082163505839988,
        0.25785124796258335,
        -0.24458293569077502,
        0.07091772713134009,
        -0.22621962608472218,
        -0.14905063520484096,
        -0.07128546216304077,
        -0.1758726859573942,
        -0.23343749831630956,
        0.17002299505302237,
        -0.044102115051983914,
        0.26301572735080264,
        0.24488757902568198,
        0.016394074833060934,
        -0.10054618832735798,
        0.01601072133670378,
        0.19483888692467027,
        -0.2171224989810149,
        0.2914948257745233,
        0.25392297544152737
      ],
      [
        0.12807541216264356,
        0.16270376552052884,
        -0.0011210514281441708,
        0.139068715259125,
        -0.3025822612089497,
        0.20634866450788308,
        -0.0740288856810204,
        -0.20568349377053977,
        0.28370426681453514,
        0.19707155748749788,
        0.24486595379585624,
        0.3256380633342701,
        0.3136950152549806,
        -0.1704405778691768,
        0.14760667208062056,
        0.1438064712341332,
        0.32717198393789787,
        -0.05591235810710343,
        0.09837203322771448,
        -0.28821821880957627,
        -0.10746183623892538,
        0.13719693379802517,
        -0.10798126544909625,
        0.07211230745106689,
        0.33580975575876076,
        -0.14842501754621618,
        -0.31117501644551526,
        0.06724660942639682,
        -0.3360188279605743,
        -0.20039274196831416,
        0.06382398777129994,
        -0.21691624999456877
      ],
      [
        0.23198964639201675,
        -0.27323176273490246,
        0.2890139777411915,
        -0.18049692202968315,
        -0.21184774434906664,
        0.2951662051119785,
        0.09542645588679327,
        0.23810808549272372,
        0.10899958895949474,
        0.3200605450948289,
        -0.13690732612600162,
        0.07958058041337612,
        -0.2674529106523343,
        0.30087751296011017,
        -0.07499657029980067,
        -0.25643775389819984,
        0.02727028270958226,
        -0.10306583086998927,
        -0.2938262118616529,
        -0.1117224256563675,
        0.17175821981661749,
        0.21039877589483774,
        -0.2643585439998053,
        0.16569545164183525,
        -0.18589215329138903,
        0.2971460512536442,
        0.04964003162575226,
        -0.34025402006490924,
        0.22281595030501739,
        0.23033964876011565,
        -0.31880449893179863,
        -0.28429917861197584
      ]
    ]
  ]
}